svm_type nu_svr
kernel_type rbf
gamma 0.0315
nr_class 2
total_sv 49
rho -109.569
SV
68.21768921855752 2:4.66885 3:2.24786 4:4.26402 5:4.4465 6:4.69816 7:0.836922 8:2.36897 9:1.99025 10:2.58721 11:0.159543 12:1.00382 13:3.36832 14:0.0645033 15:0.763424 16:1.51519 17:1.61262 18:2.38192 19:1.45079 20:3.71545 21:1.37436 22:0.823673 23:2.8563 24:2.89918 25:2.15634 26:5.7836 27:9.46741 28:5.82924 29:0.570063 30:9.26474 31:2.95737 32:3.35689 33:4.408 34:4.41755 35:1.83076 36:5.32749 37:6.08219 38:5.70597 39:4.20625 40:5.01687 41:2.44821 42:7.05703 43:4.2809 44:4.95234 45:2.14391 46:4.81984 47:5.50533 48:5.23839 49:0.738875 50:8.27793 51:8.41439 52:4.7584 53:7.56491 54:4.17213 55:6.29102 56:4.96065 57:6.45475 58:2.10266 59:3.02067 60:0.561866 61:1.20615 62:0.369168 63:1.17887 
27.74513535452873 2:5.06397 3:2.62884 4:4.5818 5:4.64471 6:4.83785 7:0.635265 8:3.60849 9:6.08147 10:2.58331 11:0.100697 12:1.11526 13:3.27643 14:0.0704691 15:0.790025 16:1.62854 17:1.73208 18:2.44887 19:1.53173 20:3.91974 21:1.45867 22:0.697337 23:1.6455 24:2.97487 25:1.69761 26:5.80431 27:9.46741 28:5.8737 29:0.567982 30:9.1715 31:2.95774 32:3.49125 33:5.12584 34:4.34815 35:2.17917 36:4.96904 37:6.11644 38:5.94893 39:4.47323 40:4.80874 41:2.45222 42:7.15378 43:5.58141 44:4.80878 45:2.14514 46:5.24512 47:5.48027 48:5.11144 49:0.748595 50:8.64479 51:8.41438 52:5.23879 53:7.56042 54:5.44644 55:4.80376 56:5.55371 57:6.43422 58:2.08549 59:3.91872 60:0.4088 61:0.723663 62:0.299579 63:1.18019 
-4.721373420142236 2:4.69033 3:2.14302 4:4.22054 5:4.42999 6:4.63309 7:0.806841 8:1.80894 9:0.905291 10:2.89531 11:2.63659 12:1.013 13:3.27078 14:0.0872388 15:0.743145 16:1.45569 17:1.52314 18:2.24031 19:1.61997 20:3.726 21:1.50137 22:0.879803 23:2.0498 24:3.25153 25:2.02247 26:5.75509 27:9.46742 28:5.89015 29:0.5565 30:9.19101 31:2.95764 32:3.35767 33:5.0598 34:4.5335 35:1.87057 36:5.47349 37:6.05885 38:5.69377 39:4.49866 40:5.25485 41:2.44098 42:6.96698 43:5.16888 44:5.17697 45:2.1387 46:5.16504 47:5.50286 48:5.13563 49:0.739964 50:8.47667 51:8.41438 52:5.28625 53:7.55665 54:4.66825 55:5.44897 56:4.77417 57:6.55782 58:1.93657 59:3.12202 60:0.555469 61:0.771491 62:0.321646 63:1.08248 
88.80661556566811 2:4.66368 3:2.94418 4:4.12403 5:4.52859 6:4.80583 7:1.13804 8:1.69132 9:1.15058 10:2.5987 11:0.0380831 12:0.935046 13:3.43521 14:0.0832998 15:0.608916 16:1.34983 17:1.40988 18:2.49242 19:2.02125 20:3.49541 21:1.29215 22:1.08102 23:1.89507 24:2.98031 25:1.81529 26:5.67089 27:9.46747 28:5.95735 29:0.570928 30:9.17885 31:2.95749 32:3.80928 33:7.07916 34:4.34743 35:2.52948 36:5.16676 37:6.11026 38:6.23784 39:4.85238 40:4.97407 41:2.45028 42:7.29538 43:5.90348 44:5.03571 45:2.14237 46:5.17813 47:5.49175 48:4.95205 49:0.746734 50:8.03182 51:8.4144 52:5.13269 53:7.56009 54:4.43271 55:5.84056 56:5.2199 57:6.40226 58:1.83205 59:4.66376 60:0.354189 61:0.515421 62:0.234046 63:0.924636 
68.07531241805451 2:4.72361 3:2.37892 4:4.16595 5:4.55416 6:5.00357 7:1.33642 8:1.98588 9:0.615702 10:2.63379 11:0.306006 12:1.25053 13:3.3771 14:0.0727308 15:0.852309 16:1.96773 17:2.10569 18:2.80203 19:2.04274 20:4.03667 21:1.66302 22:1.00672 23:2.66957 24:2.71871 25:2.11924 26:5.98031 27:9.46735 28:5.82968 29:0.569989 30:9.1818 31:2.95763 32:3.76498 33:5.78287 34:4.62377 35:2.02947 36:5.5793 37:6.05862 38:5.83177 39:5.26696 40:5.39597 41:2.44015 42:7.23317 43:5.44506 44:5.30132 45:2.13849 46:5.19599 47:5.49539 48:5.10467 49:0.740338 50:8.29943 51:8.41439 52:5.18884 53:7.56022 54:4.37456 55:6.13201 56:4.96102 57:6.72942 58:2.24099 59:3.0559 60:0.591923 61:0.97844 62:0.359026 63:1.04285 
-8.446476812111486 2:4.80364 3:2.55162 4:4.27725 5:4.47282 6:4.78562 7:0.930958 8:2.04115 9:1.27413 10:2.58708 11:0.167892 12:1.02303 13:3.44664 14:0.0712687 15:0.692514 16:1.563 17:1.65861 18:2.15187 19:1.48409 20:3.58766 21:1.2418 22:0.942517 23:2.44463 24:2.77315 25:2.11309 26:6.14346 27:9.46731 28:5.92691 29:0.571084 30:9.3808 31:2.95751 32:3.99966 33:5.67281 34:4.67904 35:2.18165 36:4.68857 37:6.14683 38:6.19954 39:6.08332 40:4.47046 41:2.45682 42:7.42978 43:6.1614 44:4.42885 45:2.15022 46:4.8729 47:5.48854 48:5.25017 49:0.750286 50:8.59919 51:8.41438 52:4.26959 53:7.56362 54:4.5996 55:5.48696 56:4.88004 57:6.18946 58:1.88541 59:2.71071 60:0.559838 61:0.839108 62:0.440715 63:1.35731 
-8.709747221420471 2:4.55901 3:2.45096 4:4.10995 5:4.19856 6:4.75319 7:1.0887 8:3.19833 9:6.88771 10:2.58078 11:0.14425 12:0.710054 13:2.97085 14:0.0715676 15:0.568463 16:0.99891 17:1.03307 18:1.55096 19:1.01023 20:2.94419 21:0.727063 22:0.965336 23:2.51464 24:2.75707 25:2.03804 26:5.78204 27:9.46742 28:5.94834 29:0.571231 30:9.38608 31:2.95776 32:3.47475 33:5.79066 34:4.3607 35:2.15775 36:5.41977 37:6.07037 38:5.99805 39:5.55206 40:5.0787 41:2.44726 42:7.45398 43:4.51801 44:5.00923 45:2.14369 46:4.79277 47:5.50201 48:5.28281 49:0.744486 50:8.07236 51:8.41439 52:4.97579 53:7.56005 54:4.58455 55:5.71272 56:4.74683 57:6.74802 58:2.24099 59:3.05882 60:0.564571 61:1.53917 62:0.329225 63:0.953418 
-16.17202063437446 2:4.39183 3:2.28537 4:4.06877 5:4.14171 6:4.44521 7:0.751144 8:2.11143 9:2.72202 10:2.60215 11:0.158422 12:0.811337 13:3.75906 14:0.0613712 15:0.557332 16:1.25155 17:1.32365 18:2.55324 19:1.32594 20:3.70836 21:1.41312 22:0.765363 23:1.50627 24:2.61302 25:2.05656 26:5.60151 27:9.46746 28:5.86275 29:0.568478 30:9.30042 31:2.95757 32:3.21576 33:4.3713 34:4.64433 35:1.61831 36:4.71885 37:6.13493 38:5.69914 39:3.95267 40:4.51154 41:2.45448 42:7.18086 43:4.64277 44:4.41929 45:2.1498 46:4.87583 47:5.50563 48:5.43525 49:0.740604 50:8.22371 51:8.41439 52:5.06978 53:7.5623 54:3.40255 55:6.99532 56:4.77689 57:6.03822 58:1.82865 59:2.64706 60:0.567951 61:1.43059 62:0.452333 63:2.07109 
-4.265583245334844 2:4.44423 3:2.32224 4:3.99274 5:4.12466 6:4.58332 7:1.0146 8:2.54574 9:3.29991 10:2.52553 11:0.0221411 12:0.757608 13:3.27712 14:0.0819991 15:0.519742 16:1.17497 17:1.21742 18:1.58928 19:0.964136 20:3.08755 21:0.939733 22:0.637523 23:1.53305 24:2.43412 25:1.93276 26:5.9584 27:9.46733 28:5.92369 29:0.571632 30:9.50654 31:2.9576 32:3.82733 33:5.95864 34:4.52617 35:2.55103 36:5.25737 37:6.08942 38:6.0676 39:5.84612 40:4.92668 41:2.45023 42:7.60234 43:5.75254 44:4.80066 45:2.14736 46:4.60091 47:5.49976 48:5.56097 49:0.740426 50:8.19196 51:8.41439 52:5.11878 53:7.55722 54:3.82116 55:6.18124 56:4.54532 57:6.3718 58:2.09795 59:2.60384 60:0.638945 61:1.27066 62:0.49583 63:1.12591 
-57.67554793322507 2:4.54642 3:2.88381 4:4.11732 5:4.21451 6:5.02631 7:1.42263 8:2.0451 9:2.19608 10:2.6283 11:0.301162 12:0.724245 13:3.56546 14:0.072037 15:0.48389 16:1.05343 17:1.09302 18:1.82403 19:1.23006 20:3.08779 21:1.07367 22:1.01535 23:2.32582 24:3.02683 25:2.07701 26:5.6909 27:9.46747 28:6.16185 29:0.570589 30:9.46764 31:2.95737 32:4.22527 33:7.15263 34:4.25482 35:3.02926 36:4.69729 37:6.15828 38:6.18502 39:6.94899 40:4.50737 41:2.45816 42:7.63394 43:5.4977 44:4.46003 45:2.15158 46:4.63996 47:5.49381 48:5.53726 49:0.743748 50:7.91033 51:8.41442 52:5.13728 53:7.55845 54:3.90686 55:6.11756 56:4.29732 57:6.62123 58:1.63809 59:3.47712 60:0.433208 61:0.95228 62:0.319473 63:0.802265 
14.49937788382439 2:4.83134 3:2.53696 4:4.38326 5:4.72353 6:5.04353 7:1.1288 8:3.30894 9:1.64686 10:2.56939 11:0.0855409 12:1.26088 13:3.04457 14:0.136615 15:0.966734 16:1.7123 17:1.75642 18:2.53031 19:1.75736 20:3.94904 21:1.72592 22:0.616998 23:1.62092 24:2.57254 25:1.97401 26:6.07743 27:9.46734 28:5.87875 29:0.566511 30:9.2545 31:2.95796 32:4.09882 33:6.17916 34:4.76171 35:2.02111 36:5.1492 37:6.1219 38:6.19552 39:6.50675 40:5.03987 41:2.44989 42:7.41558 43:6.65844 44:4.96249 45:2.14572 46:4.90164 47:5.48787 48:5.3435 49:0.742045 50:8.30058 51:8.4144 52:5.2253 53:7.55581 54:5.52766 55:4.72369 56:5.28699 57:6.4115 58:2.24951 59:3.91177 60:0.433208 61:0.990756 62:0.259635 63:0.665478 
32.18966671576531 2:4.58436 3:2.40908 4:4.10137 5:4.22828 6:4.72371 7:1.06189 8:1.6582 9:1.03573 10:2.59832 11:0.134818 12:0.691688 13:3.3882 14:0.0665776 15:0.499499 16:0.956168 17:0.990866 18:1.59147 19:1.0397 20:2.95809 21:0.971725 22:0.855049 23:1.41581 24:2.65186 25:2.18145 26:6.0623 27:9.46731 28:5.98974 29:0.570709 30:9.60433 31:2.9573 32:3.4567 33:5.48835 34:4.48928 35:2.01105 36:5.30568 37:6.07648 38:5.85783 39:5.32741 40:4.94021 41:2.44928 42:7.26034 43:4.88655 44:4.80155 45:2.14728 46:4.51494 47:5.50303 48:5.85639 49:0.734858 50:8.1012 51:8.41439 52:5.34808 53:7.55563 54:4.08091 55:6.19556 56:4.7763 57:6.26714 58:1.99199 59:2.59876 60:0.649087 61:1.59663 62:0.40568 63:1.50796 
67.29239450283113 2:5.23637 3:3.82737 4:4.46104 5:4.6369 6:4.9414 7:0.908407 8:2.68209 9:2.31416 10:2.73235 11:0.833693 12:1.27662 13:2.76288 14:0.119429 15:1.04915 16:1.79311 17:1.86379 18:2.08257 19:0.793559 20:3.3837 21:0.765069 22:0.664743 23:1.7662 24:2.38281 25:1.74084 26:5.77117 27:9.46752 28:5.92842 29:0.571001 30:9.22627 31:2.95784 32:4.16976 33:6.44266 34:4.15753 35:2.68774 36:5.0434 37:6.11695 38:6.38132 39:5.62559 40:4.82594 41:2.45417 42:7.59918 43:5.5316 44:4.97001 45:2.14386 46:5.28095 47:5.44271 48:4.81397 49:0.766178 50:8.31439 51:8.41439 52:4.53879 53:7.55917 54:5.21195 55:4.74108 56:5.40014 57:6.1198 58:2.33119 59:4.1121 60:0.401172 61:0.55836 62:0.245436 63:0.615764 
-28.03185224080289 2:4.7553 3:3.57005 4:4.13058 5:4.39508 6:4.76134 7:1.07447 8:3.12523 9:5.62924 10:2.62385 11:0.236368 12:0.917666 13:3.53642 14:0.0622252 15:0.648713 16:1.38213 17:1.46751 18:1.88247 19:1.30635 20:3.64378 21:1.91384 22:1.52163 23:2.21747 24:2.91234 25:1.87541 26:5.43097 27:9.46772 28:5.86094 29:0.569714 30:9.22963 31:2.95767 32:3.64944 33:5.4255 34:4.88751 35:2.1977 36:4.64686 37:6.15426 38:5.8644 39:5.82517 40:4.52691 41:2.4554 42:7.20135 43:5.81203 44:4.54064 45:2.14838 46:5.26679 47:5.46326 48:5.00255 49:0.761821 50:8.45614 51:8.41438 52:4.98605 53:7.56187 54:4.04661 55:6.11121 56:4.6358 57:6.19363 58:1.4769 59:3.7082 60:0.407524 61:0.556146 62:0.375254 63:1.46296 
-59.83098778364198 2:4.67018 3:3.42363 4:4.0461 5:4.20013 6:4.84848 7:1.28399 8:1.38588 9:0.618989 10:2.60814 11:0.298751 12:0.703853 13:3.24124 14:0.0728132 15:0.545732 16:0.952846 17:0.980728 18:1.48037 19:1.01582 20:2.928 21:0.657339 22:0.825361 23:1.8755 24:2.76715 25:2.372 26:5.67802 27:9.46752 28:6.02843 29:0.570766 30:9.35982 31:2.95751 32:3.58235 33:5.11446 34:4.33095 35:2.29127 36:4.64296 37:6.1563 38:6.03419 39:4.76322 40:4.35107 41:2.46087 42:7.28056 43:5.47278 44:4.37336 45:2.15225 46:4.93453 47:5.48911 48:5.13054 49:0.749483 50:8.16306 51:8.41439 52:5.15846 53:7.56047 54:4.93784 55:5.26587 56:4.92068 57:6.77027 58:2.19526 59:4.24399 60:0.346021 61:0.590441 62:0.323276 63:1.26408 
42.46975662570971 2:4.54262 3:2.39245 4:4.07278 5:4.3702 6:4.64409 7:0.995916 8:2.53435 9:5.08708 10:2.68323 11:0.362366 12:0.919381 13:3.23493 14:0.0764415 15:0.66251 16:1.34529 17:1.41194 18:1.94993 19:1.32851 20:3.59387 21:1.23648 22:1.1101 23:2.1143 24:3.02212 25:1.88713 26:5.56929 27:9.46756 28:5.88494 29:0.56112 30:9.23415 31:2.9582 32:3.64599 33:4.94322 34:4.67338 35:1.86245 36:5.6467 37:6.04449 38:5.81573 39:6.09416 40:5.44675 41:2.43698 42:7.4791 43:5.15747 44:5.24214 45:2.13983 46:5.00607 47:5.48682 48:5.33647 49:0.741535 50:8.28214 51:8.41438 52:4.58238 53:7.55991 54:4.00712 55:6.20513 56:4.43652 57:6.28753 58:2.05282 59:2.52442 60:0.721208 61:0.668358 62:0.448783 63:1.40006 
115.5 2:4.70144 3:2.40303 4:4.24537 5:4.37783 6:4.75437 7:0.929554 8:1.98114 9:0.684357 10:2.59988 11:0.306371 12:1.11186 13:3.25761 14:0.110989 15:0.860141 16:1.47498 17:1.51992 18:2.05398 19:0.93053 20:3.87293 21:1.45912 22:0.711222 23:1.63374 24:3.23498 25:1.90105 26:5.62334 27:9.46744 28:5.82431 29:0.569907 30:9.08537 31:2.95773 32:4.25914 33:6.58827 34:4.36134 35:2.92581 36:4.52279 37:6.17854 38:6.14518 39:6.70437 40:4.43643 41:2.45763 42:7.43791 43:6.83536 44:4.38849 45:2.15144 46:5.68992 47:5.46418 48:4.70035 49:0.755442 50:8.30321 51:8.41438 52:5.442 53:7.56227 54:6.01106 55:4.07553 56:5.35953 57:6.20976 58:2.05282 59:4.4792 60:0.323276 61:0.488544 62:0.291582 63:1.04268 
-115.5 2:4.55217 3:2.38728 4:4.20509 5:4.35137 6:4.62351 7:0.813148 8:1.99004 9:1.82275 10:2.59139 11:0.118376 12:1.10579 13:3.13107 14:0.0896276 15:0.807783 16:1.60308 17:1.68403 18:2.20648 19:0.925282 20:3.80772 21:1.85672 22:0.846643 23:2.77607 24:2.88498 25:2.00395 26:5.75376 27:9.4674 28:5.92224 29:0.572282 30:9.18165 31:2.95797 32:3.89523 33:5.84639 34:4.51009 35:2.26991 36:5.12622 37:6.1061 38:5.97257 39:4.89289 40:4.89705 41:2.44882 42:7.4537 43:5.30121 44:4.82767 45:2.1446 46:5.2721 47:5.48904 48:4.94611 49:0.747475 50:8.25471 51:8.41439 52:5.06265 53:7.56347 54:5.42773 55:4.62528 56:5.34439 57:6.14895 58:2.06861 59:3.76688 60:0.427412 61:0.583341 62:0.333905 63:1.10246 
-79.1516073218985 2:4.58653 3:2.32488 4:4.124 5:4.2394 6:4.66201 7:0.957646 8:1.72829 9:0.781327 10:2.56667 11:0.0943477 12:0.810171 13:3.10905 14:0.126537 15:0.648773 16:1.01632 17:0.995445 18:1.61415 19:1.26355 20:3.05284 21:1.03962 22:0.749374 23:1.18393 24:3.10614 25:2.02713 26:5.49015 27:9.46751 28:5.9087 29:0.572494 30:9.3307 31:2.95756 32:3.63779 33:5.85822 34:4.37927 35:2.12911 36:5.19595 37:6.10261 38:5.83949 39:5.46019 40:5.03671 41:2.44628 42:7.36249 43:6.36693 44:4.85434 45:2.14632 46:5.42326 47:5.47446 48:5.32613 49:0.745965 50:8.03972 51:8.4144 52:6.06694 53:7.54893 54:6.02419 55:4.21722 56:5.09264 57:7.05774 58:1.9111 59:3.72549 60:0.444895 61:1.24126 62:0.323095 63:1.18555 
99.77267965595091 2:4.48368 3:3.72817 4:3.32641 5:4.40515 6:4.76632 7:2.03454 8:2.26773 9:1.49789 10:2.74574 11:0.782809 12:0.858131 13:3.59186 14:0.0692096 15:0.487236 16:1.30196 17:1.37141 18:1.97697 19:1.22097 20:3.29261 21:1.56828 22:0.862726 23:3.38928 24:2.61756 25:2.3939 26:5.72925 27:9.46751 28:6.00119 29:0.571006 30:9.29015 31:2.95763 32:4.36928 33:5.53092 34:4.96261 35:1.9515 36:4.35274 37:6.19647 38:6.18283 39:5.97378 40:4.24015 41:2.46239 42:7.5267 43:6.26866 44:4.17279 45:2.15567 46:4.72179 47:5.49259 48:5.65968 49:0.743798 50:7.70033 51:8.41445 52:4.82291 53:7.55494 54:4.73679 55:5.28741 56:5.10912 57:6.42675 58:1.62225 59:4.44429 60:0.313622 61:1.00167 62:0.329615 63:0.738525 
69.93163803007552 2:4.5354 3:2.6586 4:4.07286 5:4.45258 6:4.76971 7:1.15342 8:1.82508 9:0.898514 10:2.68073 11:0.430146 12:1.07002 13:3.34677 14:0.0601927 15:0.855156 16:1.60329 17:1.71474 18:2.19817 19:1.40473 20:3.78184 21:1.65629 22:0.985791 23:1.98165 24:2.90751 25:1.89949 26:5.61673 27:9.46756 28:6.01167 29:0.570992 30:9.30148 31:2.95768 32:3.68732 33:5.26567 34:4.47645 35:2.07741 36:4.51422 37:6.17115 38:6.06002 39:4.53272 40:4.31693 41:2.46106 42:7.4087 43:4.48749 44:4.2522 45:2.15421 46:4.91257 47:5.50487 48:5.20149 49:0.740854 50:8.16443 51:8.4144 52:4.57824 53:7.56415 54:4.34158 55:5.92581 56:4.96865 57:6.22475 58:1.86597 59:3.91872 60:0.369792 61:0.722567 62:0.396459 63:1.59961 
-115.5 2:4.58799 3:3.45306 4:3.98385 5:4.43857 6:4.80093 7:1.29817 8:1.66427 9:0.772419 10:2.7071 11:0.508312 12:1.22979 13:3.26709 14:0.058523 15:0.974196 16:1.85376 17:1.99409 18:2.93982 19:1.43734 20:4.15491 21:1.39195 22:1.14628 23:2.37411 24:3.09084 25:2.10697 26:5.79291 27:9.46746 28:5.99999 29:0.570735 30:9.29425 31:2.95754 32:3.6334 33:5.81817 34:4.44147 35:2.29155 36:4.83749 37:6.13474 38:6.18429 39:5.54876 40:4.5871 41:2.4564 42:7.51124 43:4.90508 44:4.63 45:2.14778 46:4.97057 47:5.48437 48:4.87427 49:0.752916 50:8.04576 51:8.41441 52:4.19841 53:7.56389 54:4.27339 55:5.82572 56:5.08458 57:5.75663 58:2.36074 59:3.36589 60:0.466531 61:0.729221 62:0.365112 63:1.14233 
-20.26504871505533 2:4.49145 3:2.63859 4:4.17124 5:4.20015 6:4.41521 7:0.591969 8:3.09326 9:6.05139 10:2.91639 11:1.95515 12:0.63128 13:3.78491 14:0.0763867 15:0.341757 16:0.956165 17:0.980705 18:1.2576 19:0.737313 20:2.98024 21:1.13666 22:0.81931 23:2.18016 24:2.65023 25:1.87657 26:5.58855 27:9.46752 28:5.97668 29:0.570585 30:9.3442 31:2.95744 32:3.55766 33:4.78965 34:4.68715 35:1.96091 36:4.39497 37:6.16899 38:5.80472 39:4.1894 40:4.21997 41:2.4586 42:7.08603 43:5.70163 44:4.17289 45:2.15213 46:5.06356 47:5.47398 48:5.31598 49:0.748011 50:7.68357 51:8.41441 52:5.16578 53:7.55808 54:4.58434 55:5.6406 56:4.62638 57:6.26144 58:1.10213 59:2.11008 60:0.669371 61:1.79863 62:0.680962 63:1.53329 
92.35148276230312 2:4.48631 3:3.16694 4:4.10667 5:4.38155 6:4.62568 7:0.932619 8:1.75837 9:0.701677 10:2.59018 11:0.127956 12:0.598744 13:3.87419 14:0.0594895 15:0.224089 16:0.975827 17:1.02 18:1.26478 19:0.742433 20:3.05186 21:1.05594 22:0.664939 23:1.98399 24:2.88128 25:2.43916 26:5.59902 27:9.46757 28:5.85094 29:0.568178 30:9.10693 31:2.95882 32:3.77889 33:4.58488 34:5.19745 35:1.80622 36:3.73099 37:6.23283 38:5.88635 39:6.09177 40:3.52627 41:2.47111 42:7.24456 43:5.4541 44:3.46053 45:2.16302 46:4.72591 47:5.49468 48:5.61581 49:0.739584 50:8.07835 51:8.41441 52:4.4194 53:7.55829 54:4.23167 55:5.77729 56:4.6091 57:6.0056 58:1.51998 59:3.20031 60:0.365112 61:1.04303 62:0.503043 63:1.49602 
77.77759121553488 2:4.73036 3:2.7221 4:4.43555 5:4.48818 6:4.61332 7:0.527019 8:1.90841 9:0.699841 10:2.55518 11:0.0609752 12:0.870007 13:4.09217 14:0.0567399 15:0.284456 16:1.35106 17:1.43875 18:2.51251 19:1.64106 20:3.69815 21:1.75633 22:0.802499 23:2.9318 24:2.32162 25:1.89333 26:6.03049 27:9.46732 28:5.8729 29:0.568465 30:9.22151 31:2.95739 32:3.71466 33:6.41631 34:4.24564 35:2.242 36:4.54596 37:6.1541 38:6.20393 39:5.20981 40:4.28094 41:2.46005 42:7.38765 43:5.55185 44:4.35094 45:2.15028 46:5.27207 47:5.48923 48:4.80223 49:0.743707 50:8.28671 51:8.41439 52:5.13707 53:7.55234 54:3.61286 55:6.74048 56:4.65069 57:6.2625 58:1.68513 59:2.69777 60:0.538974 61:0.795401 62:0.446247 63:1.72256 
62.44759550048683 2:4.86647 3:2.51435 4:4.32117 5:4.51339 6:4.86755 7:0.981657 8:1.11901 9:0.128075 10:2.83229 11:0.597661 12:1.16292 13:3.32629 14:0.0621385 15:0.891385 16:1.77589 17:1.90403 18:2.54964 19:1.69788 20:3.71729 21:1.07179 22:0.578449 23:2.28368 24:2.31531 25:1.98329 26:6.10121 27:9.46735 28:5.82446 29:0.569813 30:9.29143 31:2.95775 32:4.08103 33:6.15815 34:4.54302 35:2.37843 36:5.01172 37:6.10865 38:6.08487 39:6.03807 40:4.69834 41:2.45228 42:7.42119 43:6.80551 44:4.63835 45:2.14736 46:4.87565 47:5.49469 48:5.55279 49:0.744233 50:8.65893 51:8.41438 52:4.68716 53:7.56152 54:4.78465 55:5.54598 56:5.11426 57:6.40199 58:1.99588 59:2.01398 60:0.802666 61:1.22126 62:0.614315 63:1.99617 
-115.5 2:4.45392 3:2.74072 4:4.02433 5:4.34177 6:4.66606 7:1.08094 8:2.2688 9:1.73693 10:2.60405 11:0.164735 12:1.07502 13:3.30293 14:0.0737487 15:0.823902 16:1.49973 17:1.58591 18:2.45843 19:1.70903 20:3.67026 21:1.46411 22:0.923796 23:2.69246 24:3.18653 25:2.37548 26:5.88094 27:9.46744 28:6.04516 29:0.570912 30:9.26299 31:2.95777 32:3.94231 33:6.15311 34:4.65132 35:2.21459 36:5.43458 37:6.07372 38:6.28267 39:5.67933 40:5.05212 41:2.44968 42:7.28466 43:6.08235 44:5.10153 45:2.14147 46:4.58688 47:5.50769 48:5.20952 49:0.742282 50:8.05836 51:8.41441 52:4.68529 53:7.56234 54:4.52893 55:5.56019 56:5.1517 57:5.70854 58:2.09937 59:3.55711 60:0.483695 61:1.15007 62:0.301139 63:1.06121 
-50.20579411625475 2:5.06695 3:3.91433 4:4.36502 5:4.45517 6:4.87226 7:0.935545 8:2.04602 9:0.937375 10:2.65562 11:0.556511 12:0.995909 13:3.7603 14:0.0670836 15:0.580031 16:1.60552 17:1.71007 18:1.97165 19:0.957225 20:3.90983 21:1.62796 22:0.574703 23:1.38949 24:2.99432 25:1.80462 26:5.34964 27:9.46794 28:5.82781 29:0.568993 30:8.91938 31:2.95886 32:4.05064 33:5.89323 34:4.3704 35:2.74684 36:4.11327 37:6.19996 38:6.15362 39:5.62538 40:4.24419 41:2.45853 42:7.37235 43:6.1936 44:4.25165 45:2.1512 46:5.81357 47:5.42661 48:4.54758 49:0.763777 50:8.16769 51:8.4144 52:5.38249 53:7.55612 54:3.94633 55:6.35079 56:4.68902 57:6.20873 58:1.52088 59:4.17294 60:0.328232 61:0.76204 62:0.333764 63:1.01893 
34.77901296004284 2:4.70571 3:2.33838 4:4.46364 5:4.55093 6:4.79448 7:0.720995 8:1.80251 9:0.751742 10:2.61495 11:0.296951 12:1.08821 13:3.3017 14:0.095172 15:0.777145 16:1.6996 17:1.78526 18:2.29987 19:1.4287 20:3.60503 21:1.44845 22:0.918636 23:2.57948 24:2.71652 25:2.02645 26:5.80463 27:9.46745 28:5.85495 29:0.569497 30:9.28068 31:2.95746 32:3.17183 33:2.80859 34:4.62208 35:1.54174 36:5.76207 37:6.02373 38:5.71829 39:3.63986 40:5.37435 41:2.4407 42:7.02507 43:4.05123 44:5.26707 45:2.13983 46:4.79163 47:5.50458 48:5.61806 49:0.73597 50:8.45674 51:8.41439 52:4.19392 53:7.5671 54:4.37985 55:6.06021 56:5.16496 57:6.28438 58:1.64644 59:2.99062 60:0.608519 61:0.988847 62:0.395538 63:1.08322 
-79.2207899144863 2:4.70265 3:2.54155 4:4.22845 5:4.40327 6:4.60297 7:0.75968 8:1.27562 9:0.333698 10:2.8471 11:0.677661 12:0.999425 13:3.14207 14:0.0664167 15:0.802652 16:1.41518 17:1.4998 18:1.83247 19:1.21357 20:3.33772 21:0.952505 22:1.05286 23:2.7214 24:3.01263 25:2.29249 26:6.03798 27:9.46736 28:6.00461 29:0.570572 30:9.49283 31:2.95743 32:3.69613 33:6.33854 34:4.28234 35:2.18574 36:5.43757 37:6.0631 38:6.31829 39:4.8448 40:5.03903 41:2.45013 42:7.3142 43:5.75044 44:5.08734 45:2.14198 46:4.35523 47:5.50765 48:5.57175 49:0.741873 50:8.30195 51:8.41439 52:4.89197 53:7.55501 54:4.25998 55:6.04326 56:4.80113 57:6.80894 58:2.2688 59:2.19588 60:0.807978 61:1.99553 62:0.580122 63:1.38446 
-13.82955421179259 2:4.70138 3:2.79653 4:4.10273 5:4.25359 6:4.83356 7:1.19811 8:1.6568 9:0.577303 10:2.55254 11:0.017631 12:0.648955 13:4.10017 14:0.060334 15:0.246377 16:1.07043 17:1.12398 18:1.63601 19:0.976773 20:3.14298 21:1.15647 22:0.820811 23:1.5701 24:2.9979 25:1.77186 26:5.3637 27:9.46774 28:5.98782 29:0.570993 30:9.40083 31:2.9577 32:3.97847 33:6.5742 34:4.55256 35:2.58551 36:4.3679 37:6.17312 38:6.17801 39:5.84595 40:4.31262 41:2.45767 42:7.61592 43:6.59075 44:4.18829 45:2.15333 46:5.35293 47:5.4768 48:5.10275 49:0.751341 50:8.22888 51:8.41439 52:6.05439 53:7.54534 54:3.73779 55:6.78829 56:4.22607 57:6.9093 58:1.51646 59:2.49076 60:0.57922 61:1.37393 62:0.626268 63:1.84195 
-12.11111346301245 2:4.47389 3:2.50189 4:3.9735 5:4.24366 6:4.64466 7:1.11438 8:1.35955 9:0.269337 10:2.57956 11:0.16439 12:0.65635 13:3.22793 14:0.0691915 15:0.470777 16:0.954752 17:0.986591 18:1.78015 19:1.11653 20:3.05524 21:0.765926 22:0.676139 23:1.64011 24:2.58541 25:2.00528 26:5.82335 27:9.46737 28:5.94544 29:0.570687 30:9.48618 31:2.95734 32:3.26354 33:4.50091 34:4.56727 35:1.88693 36:5.4894 37:6.0518 38:5.65659 39:4.61472 40:5.14738 41:2.44346 42:7.09957 43:4.3857 44:4.97505 45:2.14352 46:4.77013 47:5.5072 48:5.69238 49:0.734939 50:8.08289 51:8.41439 52:5.33022 53:7.56062 54:3.78862 55:6.72637 56:4.56888 57:6.79375 58:2.13357 59:1.94049 60:0.902637 61:1.07883 62:0.509353 63:1.49219 
75.70646219535851 2:4.97809 3:3.2049 4:4.43783 5:4.64361 6:4.79996 7:0.758477 8:1.85356 9:1.40894 10:2.83307 11:1.04611 12:1.13634 13:3.23512 14:0.0633231 15:0.910468 16:1.71318 17:1.8333 18:2.88626 19:1.83034 20:4.0793 21:1.57017 22:0.881246 23:2.08422 24:2.95563 25:1.82242 26:5.69082 27:9.46746 28:5.90769 29:0.57305 30:9.26013 31:2.95752 32:3.9037 33:6.36839 34:4.42714 35:2.70031 36:4.61093 37:6.1524 38:6.15584 39:6.07867 40:4.503 41:2.4565 42:7.52117 43:6.27198 44:4.52006 45:2.14884 46:5.18281 47:5.46797 48:4.83586 49:0.753218 50:8.57264 51:8.41438 52:4.62323 53:7.56122 54:5.15644 55:5.12642 56:5.25573 57:6.27713 58:2.13428 59:3.20288 60:0.475752 61:0.850554 62:0.368492 63:1.23812 
-6.566878825257247 2:4.97049 3:3.42609 4:4.20061 5:4.46904 6:5.19196 7:1.53168 8:3.12138 9:6.53455 10:2.62321 11:0.403221 12:0.804668 13:3.62929 14:0.0666363 15:0.561834 16:1.15322 17:1.20922 18:1.50934 19:1.03045 20:3.10799 21:1.26779 22:1.01496 23:2.17542 24:2.61508 25:1.91039 26:5.81235 27:9.46746 28:6.11169 29:0.570534 30:9.60785 31:2.95739 32:3.49239 33:5.33727 34:4.56955 35:1.94651 36:4.46368 37:6.16242 38:5.88541 39:5.62499 40:4.25098 41:2.45964 42:7.41948 43:5.44309 44:4.21235 45:2.15375 46:4.73619 47:5.47512 48:5.59673 49:0.748555 50:8.32847 51:8.41438 52:5.61435 53:7.54466 54:4.72514 55:5.77394 56:5.10113 57:7.24316 58:1.58188 59:2.03209 60:0.735294 61:1.39613 62:0.59725 63:1.52655 
-97.82143969329542 2:4.93242 3:2.45423 4:4.48852 5:4.61613 6:5.15819 7:1.1478 8:1.6659 9:0.639675 10:2.6905 11:0.473035 12:1.30969 13:3.25056 14:0.0768629 15:0.971928 16:2.00321 17:2.14074 18:2.35192 19:1.21731 20:3.98673 21:2.20916 22:0.890431 23:2.1624 24:2.81937 25:1.85344 26:5.7569 27:9.46749 28:5.93555 29:0.571861 30:9.16429 31:2.95788 32:4.18833 33:6.46823 34:4.50676 35:2.39871 36:4.36653 37:6.18052 38:6.23246 39:6.197 40:4.22722 41:2.46118 42:7.45294 43:6.49452 44:4.22236 45:2.15305 46:5.19161 47:5.48731 48:4.97073 49:0.742614 50:8.62533 51:8.41438 52:5.10595 53:7.55395 54:4.94164 55:5.00266 56:5.26531 57:6.35658 58:1.83205 59:3.93654 60:0.355891 61:0.605981 62:0.321163 63:0.995664 
24.23722622539649 2:4.72388 3:2.08452 4:4.24326 5:4.42121 6:4.74008 7:0.914132 8:1.40952 9:0.583137 10:2.55807 11:0.138928 12:1.07474 13:3.34215 14:0.0585677 15:0.792903 16:1.6618 17:1.78127 18:2.06298 19:1.14241 20:3.89799 21:1.33617 22:0.773504 23:1.9198 24:2.64252 25:2.13278 26:6.02936 27:9.46735 28:5.86348 29:0.569219 30:9.19585 31:2.95768 32:3.44564 33:5.62571 34:4.33812 35:1.93206 36:5.54424 37:6.04107 38:5.88058 39:5.10047 40:5.19594 41:2.44357 42:7.11597 43:4.80789 44:5.21175 45:2.13741 46:4.95015 47:5.49285 48:4.95712 49:0.747014 50:8.47827 51:8.41438 52:4.25584 53:7.56415 54:4.02663 55:6.20757 56:4.63506 57:5.91942 58:2.27395 59:2.1565 60:0.821501 61:1.32309 62:0.446247 63:1.4556 
-5.232207170908007 2:4.6626 3:3.48128 4:4.13204 5:4.29943 6:4.64204 7:0.923052 8:1.70846 9:0.71645 10:3.44802 11:5.85026 12:1.10202 13:3.26797 14:0.0594355 15:0.813255 16:1.55344 17:1.66027 18:2.29858 19:1.44301 20:3.96112 21:1.3705 22:1.09309 23:2.54001 24:3.35605 25:2.14268 26:5.38034 27:9.46788 28:5.94842 29:0.571841 30:8.96329 31:2.95801 32:3.85354 33:6.30624 34:4.32364 35:2.16145 36:5.00831 37:6.12037 38:6.34442 39:5.26748 40:4.84147 41:2.45153 42:7.32441 43:6.32433 44:4.94892 45:2.14082 46:5.65984 47:5.44059 48:4.2921 49:0.765775 50:7.9561 51:8.4144 52:4.70019 53:7.56448 54:4.61287 55:5.48774 56:4.90443 57:6.0748 58:2.24099 59:4.19739 60:0.379154 61:0.604192 62:0.279295 63:1.34593 
-68.56485575625875 2:4.44887 3:1.62164 4:4.06029 5:4.23963 6:4.57232 7:0.920673 8:1.90417 9:2.09566 10:2.62403 11:0.285248 12:0.994062 13:3.36817 14:0.0933922 15:0.661947 16:1.37871 17:1.43144 18:1.88793 19:1.14217 20:3.35244 21:1.0912 22:0.889046 23:2.36806 24:2.93494 25:1.99871 26:5.6764 27:9.46745 28:6.02981 29:0.570846 30:9.30283 31:2.95738 32:3.44393 33:5.21603 34:4.28737 35:1.6882 36:6.24543 37:5.95451 38:5.81926 39:5.12994 40:5.81875 41:2.43198 42:7.15907 43:4.3061 44:5.75195 45:2.13076 46:4.75077 47:5.50878 48:5.2969 49:0.734609 50:8.23401 51:8.41439 52:4.77543 53:7.56364 54:4.01317 55:6.55904 56:4.8835 57:6.79298 58:1.67459 59:2.42157 60:0.81812 61:1.26106 62:0.353843 63:0.988289 
-15.55693661409005 2:4.58945 3:2.95097 4:4.07003 5:4.22313 6:4.67542 7:1.03848 8:1.99707 9:0.870032 10:2.72574 11:0.878997 12:0.692311 13:3.54141 14:0.0614507 15:0.501649 16:0.997986 17:1.04253 18:1.5121 19:0.870912 20:2.92872 21:0.9205 22:0.62935 23:1.73512 24:2.74073 25:1.94629 26:5.58626 27:9.46753 28:5.96136 29:0.571151 30:9.46233 31:2.95775 32:3.54965 33:5.29505 34:4.57274 35:1.94293 36:4.79208 37:6.13305 38:5.61702 39:5.90809 40:4.61829 41:2.45201 42:7.24442 43:5.57548 44:4.42286 45:2.15126 46:4.85377 47:5.48427 48:5.5273 49:0.743654 50:8.07629 51:8.41439 52:5.13435 53:7.55112 54:3.85731 55:6.39139 56:4.73961 57:6.45969 58:1.82892 59:2.77279 60:0.553076 61:1.01659 62:0.535185 63:1.91959 
47.23084246439229 2:4.76467 3:3.26072 4:4.16695 5:4.37685 6:4.71599 7:0.974427 8:1.59024 9:0.516143 10:2.63535 11:0.354606 12:0.961013 13:3.54453 14:0.0620371 15:0.6077 16:1.59641 17:1.70521 18:2.21712 19:1.41645 20:3.48387 21:1.31023 22:1.22303 23:1.95594 24:3.75139 25:1.82016 26:5.38185 27:9.46777 28:5.86183 29:0.567383 30:9.04104 31:2.95845 32:4.18334 33:5.78199 34:4.57694 35:2.77228 36:4.18002 37:6.20062 38:6.14122 39:5.80483 40:4.17852 41:2.4609 42:7.5191 43:6.52604 44:4.12917 45:2.1539 46:5.57157 47:5.4599 48:4.90141 49:0.755326 50:8.06701 51:8.41439 52:5.38037 53:7.55538 54:4.75402 55:5.81957 56:5.18122 57:6.23137 58:1.93816 59:3.65729 60:0.376175 61:0.564929 62:0.385396 63:1.58033 
-38.06442547218263 2:4.64546 3:1.52373 4:4.21229 5:4.3498 6:4.9765 7:1.24749 8:1.53933 9:0.780941 10:2.57033 11:0.127957 12:0.593872 13:3.50551 14:0.0527941 15:0.392839 16:0.906729 17:0.950342 18:1.44572 19:0.840307 20:2.98572 21:0.911785 22:0.833283 23:2.61675 24:2.46197 25:2.16801 26:6.32191 27:9.46724 28:5.91193 29:0.571126 30:9.31853 31:2.95749 32:3.26904 33:3.46293 34:4.8863 35:1.45162 36:4.22591 37:6.18341 38:5.3953 39:4.53733 40:4.04727 41:2.46065 42:6.78205 43:4.79902 44:3.87882 45:2.15643 46:4.93631 47:5.50124 48:5.70597 49:0.735198 50:8.11561 51:8.41439 52:4.68026 53:7.56169 54:4.75543 55:5.52593 56:4.10461 57:7.25627 58:1.73791 59:1.49531 60:0.909398 61:1.20844 62:0.872211 63:2.32453 
-13.47649301267961 2:5.09241 3:2.1828 4:4.50548 5:4.88859 6:5.18018 7:1.15529 8:1.11974 9:0.10888 10:2.56729 11:0.088261 12:0.835615 13:3.17299 14:0.0664186 15:0.625147 16:1.13153 17:1.1854 18:1.84938 19:1.39938 20:2.98988 21:0.694668 22:0.691205 23:1.43559 24:2.66628 25:1.76735 26:5.6404 27:9.46746 28:5.93878 29:0.571099 30:9.17324 31:2.95757 32:4.44588 33:5.81669 34:4.69571 35:2.10357 36:5.70205 37:6.03174 38:6.41346 39:6.18881 40:5.71222 41:2.42862 42:7.63432 43:6.54142 44:5.6464 45:2.12793 46:5.71214 47:5.47066 48:4.56298 49:0.746877 50:8.65398 51:8.41437 52:4.76417 53:7.56161 54:4.02447 55:6.51908 56:4.79211 57:7.03961 58:1.7602 59:2.66595 60:0.69574 61:0.8532 62:0.365112 63:1.11319 
-115.5 2:4.70033 3:3.35065 4:4.16372 5:4.3027 6:4.97682 7:1.3055 8:1.52341 9:0.920602 10:2.7371 11:0.821762 12:0.84226 13:2.9526 14:0.17384 15:0.563335 16:1.26799 17:1.22541 18:1.7841 19:0.842078 20:2.98444 21:0.693686 22:0.975767 23:1.9425 24:2.7002 25:2.0051 26:5.61982 27:9.4676 28:5.8217 29:0.569446 30:9.20477 31:2.95811 32:3.85677 33:5.63853 34:4.73739 35:1.93502 36:4.65428 37:6.15548 38:5.97579 39:6.54278 40:4.45659 41:2.45774 42:7.25102 43:6.90455 44:4.42956 45:2.15118 46:4.89443 47:5.48548 48:5.31508 49:0.749089 50:8.36984 51:8.4144 52:4.33973 53:7.56154 54:6.12404 55:3.66433 56:5.41953 57:6.35888 58:1.88133 59:4.22894 60:0.349174 61:0.891759 62:0.351589 63:1.21353 
115.5 2:4.49396 3:2.74284 4:4.1486 5:4.36855 6:4.69016 7:0.963781 8:1.54342 9:0.459011 10:2.5896 11:0.105436 12:1.18663 13:2.8919 14:0.161305 15:0.925906 16:1.63778 17:1.64827 18:1.73096 19:0.916449 20:3.48264 21:1.24845 22:0.876855 23:1.80591 24:2.67586 25:2.02049 26:5.27091 27:9.46814 28:5.87702 29:0.567258 30:9.11304 31:2.95788 32:3.7257 33:5.51755 34:4.74382 35:2.03765 36:5.48286 37:6.06688 38:5.75133 39:5.96514 40:5.42097 41:2.43724 42:7.18621 43:6.2165 44:5.30861 45:2.13717 46:5.48568 47:5.47476 48:5.11474 49:0.741264 50:8.17556 51:8.41441 52:5.21273 53:7.55872 54:6.11673 55:4.56975 56:5.45198 57:7.19156 58:1.91281 59:3.07176 60:0.58215 61:0.708494 62:0.332657 63:1.04404 
48.36146607781382 2:4.61167 3:1.53354 4:4.33252 5:4.44969 6:4.80438 7:0.888934 8:1.69566 9:0.91837 10:2.60887 11:0.228042 12:0.760011 13:3.49049 14:0.0473815 15:0.583195 16:1.13209 17:1.20574 18:1.65235 19:0.868081 20:3.60895 21:1.78272 22:0.799488 23:2.33621 24:2.62003 25:2.37214 26:5.7269 27:9.46745 28:5.82986 29:0.570027 30:9.30218 31:2.95746 32:3.54824 33:5.1009 34:4.66559 35:2.05938 36:4.4144 37:6.16964 38:5.70384 39:5.10361 40:4.33094 41:2.45662 42:7.00988 43:6.36942 44:4.1672 45:2.15314 46:5.15217 47:5.48867 48:5.66124 49:0.737861 50:8.45559 51:8.41439 52:4.90059 53:7.56127 54:4.57952 55:5.82687 56:4.59895 57:7.20953 58:1.69487 59:2.77632 60:0.509353 61:0.833976 62:0.507099 63:1.97281 
-22.40831596733367 2:5.14284 3:2.29615 4:4.57137 5:4.69095 6:5.30208 7:1.23007 8:1.17642 9:0.190498 10:2.63679 11:0.402865 12:0.902636 13:3.31732 14:0.0506475 15:0.668832 16:1.33303 17:1.42507 18:1.94302 19:1.13101 20:3.36538 21:1.14926 22:0.880626 23:2.0304 24:2.57423 25:1.49933 26:5.70888 27:9.46748 28:5.95077 29:0.570783 30:9.16707 31:2.95769 32:4.22315 33:5.68649 34:4.68095 35:2.0833 36:5.33048 37:6.07667 38:6.23931 39:5.95718 40:5.43048 41:2.43515 42:7.52701 43:5.94123 44:5.34602 45:2.13376 46:5.71093 47:5.46226 48:4.63594 49:0.750228 50:8.79264 51:8.41438 52:4.9233 53:7.5604 54:3.72431 55:6.79083 56:4.51796 57:7.00988 58:1.86749 59:2.03564 60:0.882353 61:1.23276 62:0.591133 63:1.80467 
-3.145259167376389 2:4.57826 3:3.25002 4:4.23412 5:4.35013 6:4.87552 7:1.0949 8:1.41445 9:0.292936 10:2.5955 11:0.0394381 12:0.867709 13:3.16459 14:0.172695 15:0.569201 16:1.24375 17:1.19973 18:1.9462 19:1.17822 20:3.21066 21:1.20842 22:0.890151 23:2.41139 24:3.09852 25:2.14048 26:5.47191 27:9.46774 28:5.88807 29:0.55886 30:9.22393 31:2.95772 32:3.54769 33:5.47282 34:4.71576 35:2.07827 36:4.37025 37:6.17832 38:5.61992 39:6.11334 40:4.20956 41:2.45983 42:7.0601 43:6.27232 44:4.18509 45:2.15279 46:5.06393 47:5.47815 48:5.09806 49:0.75046 50:8.25284 51:8.41439 52:4.18383 53:7.56247 54:6.06825 55:3.69967 56:5.41786 57:6.1104 58:1.61756 59:2.4813 60:0.572459 61:1.04979 62:0.507099 63:0.939967 
-114.0831912870648 2:4.83334 3:2.6176 4:4.19105 5:4.30831 6:5.11572 7:1.44734 8:1.17169 9:0.175831 10:2.55131 11:0.0836287 12:0.625595 13:3.69794 14:0.0493192 15:0.421625 16:0.904241 17:0.951183 18:1.56824 19:1.18074 20:3.18794 21:1.53288 22:0.805049 23:1.41679 24:2.40205 25:1.99644 26:5.8238 27:9.46744 28:5.92685 29:0.571076 30:9.19634 31:2.95779 32:3.53312 33:4.76001 34:4.59076 35:2.18462 36:3.74926 37:6.23165 38:5.70269 39:5.43872 40:3.77648 41:2.46636 42:7.04459 43:5.46706 44:3.6969 45:2.15867 46:5.14907 47:5.46212 48:5.37434 49:0.750126 50:8.18725 51:8.41439 52:4.67081 53:7.55705 54:4.61841 55:5.69641 56:4.34655 57:7.18742 58:1.47218 59:2.41263 60:0.522876 61:0.663423 62:0.653595 63:1.97789 
16.66555462770526 2:5.21263 3:1.53874 4:4.89023 5:4.94809 6:5.21583 7:0.743653 8:1.83527 9:1.1577 10:2.53152 11:0.030693 12:1.10829 13:3.19682 14:0.0555924 15:0.881015 16:1.64653 17:1.76744 18:1.96824 19:1.07051 20:3.73919 21:1.54901 22:0.506504 23:1.14605 24:2.4208 25:2.1833 26:6.07547 27:9.46735 28:5.77583 29:0.570143 30:9.05238 31:2.95765 32:3.95169 33:6.003 34:4.69692 35:2.07039 36:4.6924 37:6.13669 38:6.08631 39:6.24387 40:4.86975 41:2.44463 42:7.42335 43:6.477 44:4.8103 45:2.14053 46:5.70222 47:5.47949 48:4.58702 49:0.74472 50:9.1992 51:8.41437 52:4.60714 53:7.5617 54:4.90483 55:5.79133 56:5.00962 57:7.18578 58:1.777 59:1.61797 60:0.989858 61:1.32214 62:0.655848 63:1.57278 
